digraph Tree {
node [shape=box, style="filled, rounded", color="black", fontname=helvetica] ;
edge [fontname=helvetica] ;
0 [label="Valor de tipo de suelo <= 14.0\ngini = 0.4281\nsamples = 100.0%\nvalue = [0.31, 0.69]\nclass = no regar", fillcolor="#399de58c"] ;
1 [label="gini = 0.0\nsamples = 37.9%\nvalue = [0.0, 1.0]\nclass = no regar", fillcolor="#399de5ff"] ;
0 -> 1 [labeldistance=2.5, labelangle=45, headlabel="True"] ;
2 [label="T° Ambiental (°C) <= 5.5\ngini = 0.5\nsamples = 62.1%\nvalue = [0.5, 0.5]\nclass = regar", fillcolor="#e5813900"] ;
0 -> 2 [labeldistance=2.5, labelangle=-45, headlabel="False"] ;
3 [label="Valor de tipo de suelo <= 22.5\ngini = 0.48\nsamples = 51.7%\nvalue = [0.6, 0.4]\nclass = regar", fillcolor="#e5813955"] ;
2 -> 3 ;
4 [label="gini = 0.0\nsamples = 13.8%\nvalue = [1.0, 0.0]\nclass = regar", fillcolor="#e58139ff"] ;
3 -> 4 ;
5 [label="Velocidad del viento (KM/H) <= 81.0\ngini = 0.4959\nsamples = 37.9%\nvalue = [0.45, 0.55]\nclass = no regar", fillcolor="#399de52a"] ;
3 -> 5 ;
6 [label="Velocidad del viento (KM/H) <= 23.5\ngini = 0.4444\nsamples = 31.0%\nvalue = [0.33, 0.67]\nclass = no regar", fillcolor="#399de57f"] ;
5 -> 6 ;
7 [label="PH Agua <= 4.0\ngini = 0.4444\nsamples = 10.3%\nvalue = [0.67, 0.33]\nclass = regar", fillcolor="#e581397f"] ;
6 -> 7 ;
8 [label="gini = 0.0\nsamples = 3.4%\nvalue = [0.0, 1.0]\nclass = no regar", fillcolor="#399de5ff"] ;
7 -> 8 ;
9 [label="gini = 0.0\nsamples = 6.9%\nvalue = [1.0, 0.0]\nclass = regar", fillcolor="#e58139ff"] ;
7 -> 9 ;
10 [label="PH Agua <= 3.5\ngini = 0.2778\nsamples = 20.7%\nvalue = [0.17, 0.83]\nclass = no regar", fillcolor="#399de5cc"] ;
6 -> 10 ;
11 [label="gini = 0.0\nsamples = 3.4%\nvalue = [1.0, 0.0]\nclass = regar", fillcolor="#e58139ff"] ;
10 -> 11 ;
12 [label="gini = 0.0\nsamples = 17.2%\nvalue = [0.0, 1.0]\nclass = no regar", fillcolor="#399de5ff"] ;
10 -> 12 ;
13 [label="gini = 0.0\nsamples = 6.9%\nvalue = [1.0, 0.0]\nclass = regar", fillcolor="#e58139ff"] ;
5 -> 13 ;
14 [label="gini = 0.0\nsamples = 10.3%\nvalue = [0.0, 1.0]\nclass = no regar", fillcolor="#399de5ff"] ;
2 -> 14 ;
}